6 100
</s> 0.004003 0.004419 -0.003830 -0.003278 0.001367 0.003021 0.000941 0.000211 -0.003604 0.002218 -0.004356 0.001250 -0.000751 -0.000957 -0.003316 -0.001882 0.002579 0.003025 0.002969 0.001597 0.001545 -0.003803 -0.004096 0.004970 0.003801 0.003090 -0.000604 0.004016 -0.000495 0.000735 -0.000149 -0.002983 0.001312 -0.001337 -0.003825 0.004754 0.004379 -0.001095 -0.000226 0.000509 -0.003638 -0.004007 0.004555 0.000063 -0.002582 -0.003042 -0.003076 0.001697 0.000201 0.001331 -0.004214 -0.003808 -0.000130 0.001144 0.002550 -0.003170 0.004080 0.000927 0.001120 -0.000608 0.002986 -0.002288 -0.002097 0.002158 -0.000753 0.001031 0.001805 -0.004089 -0.001983 0.002914 0.004232 0.003932 -0.003047 -0.002108 -0.000909 0.002001 -0.003788 0.002998 0.002788 -0.001599 -0.001552 -0.002238 0.004229 0.003912 -0.001180 0.004215 0.004820 0.001815 0.004983 -0.003111 -0.001532 -0.002107 -0.002907 0.002815 0.001579 0.000425 -0.002194 0.001524 0.003059 0.000194 
hello 0.002713 -0.004597 0.004007 0.000164 -0.001726 -0.001819 -0.000760 -0.002983 -0.004441 -0.002884 0.004347 -0.001799 -0.002724 0.002356 -0.001732 0.004835 -0.001631 -0.004664 0.002760 -0.000076 -0.003546 0.000992 0.001466 -0.000489 0.001854 -0.004023 0.000896 0.001846 -0.003059 0.000144 -0.000062 -0.002439 -0.002879 -0.004771 0.000023 0.000155 0.000010 -0.003999 -0.005044 -0.004825 -0.004397 -0.000556 0.001414 0.001204 -0.003235 0.005080 -0.002045 -0.001295 -0.001428 0.004810 -0.003826 0.001180 -0.001357 0.003240 0.000041 0.004340 -0.002866 -0.002648 -0.004261 -0.003727 -0.003252 -0.003166 0.002484 -0.001898 0.002724 0.003751 0.001378 0.002999 0.002516 0.002379 -0.003609 -0.003490 -0.003717 -0.000134 0.004199 -0.002782 -0.003111 -0.004265 0.003360 -0.004248 -0.000589 0.002215 -0.004694 -0.004552 0.001467 0.003583 0.004334 0.002181 0.003214 -0.003179 -0.003700 0.004040 -0.002810 0.001782 0.000583 0.001820 -0.001202 0.000202 -0.001714 -0.001145 
world -0.003832 -0.002921 0.003210 0.000560 -0.002308 -0.001279 0.002523 -0.003770 -0.002589 0.004719 0.004571 -0.004150 0.000762 -0.002195 0.000072 0.003320 0.004894 0.001813 0.004355 0.003225 -0.000409 0.004641 0.002674 0.004842 -0.001660 0.004676 0.004486 -0.001375 -0.004684 0.004967 0.000917 -0.002252 -0.000876 -0.000986 -0.003954 -0.001461 -0.000455 -0.005250 -0.003853 -0.001469 -0.001179 0.001810 0.000906 -0.000572 0.002867 0.001731 0.000463 0.003649 -0.001224 -0.001231 -0.000610 -0.002742 -0.003144 0.000365 0.004454 -0.001193 -0.000160 -0.004372 0.003600 -0.001741 0.002888 -0.002625 -0.000798 0.000005 0.003850 0.000093 0.004616 -0.000617 0.002277 -0.000025 -0.004179 0.004193 0.000903 -0.003115 0.003291 -0.004388 -0.004619 0.003147 -0.003359 -0.002923 0.003592 0.003479 0.000476 0.004422 0.005055 0.004335 0.002021 -0.004359 0.002505 -0.005175 -0.001500 0.001748 0.000870 -0.001478 0.003043 -0.004641 -0.001506 -0.001336 -0.001783 0.003096 
you -0.004731 0.002778 0.001338 0.002830 0.003678 0.000276 0.000826 -0.004550 -0.001028 0.003214 -0.001786 0.004213 -0.001194 -0.003878 -0.002591 0.004899 0.003338 -0.003967 0.004817 -0.004209 -0.004777 0.002476 -0.000656 -0.002331 -0.000381 -0.002516 0.002396 0.003815 0.004180 -0.004412 -0.002120 0.000009 -0.000937 0.003818 0.002202 0.004534 -0.003075 0.001707 0.004268 -0.001830 0.002922 0.001285 -0.004516 0.004198 0.004709 -0.002916 -0.000243 -0.001600 0.002444 -0.003865 0.003493 -0.000942 -0.001217 -0.002031 -0.004402 -0.003049 -0.001119 0.004618 -0.002521 -0.004637 0.000396 0.000612 0.003041 0.000073 0.003482 0.002983 -0.001309 -0.000637 0.000797 0.001263 0.003335 0.004014 -0.002503 -0.002518 -0.001620 -0.002691 0.001238 -0.003829 -0.002269 -0.004974 0.002176 0.004363 -0.002205 -0.004551 0.002968 0.001587 -0.002522 -0.000641 -0.001231 -0.000123 -0.001813 0.000036 -0.002764 0.003761 0.003827 0.003261 -0.001474 0.000273 0.000805 -0.002683 
are -0.004706 -0.001057 -0.001972 0.002984 0.002697 0.001803 -0.003100 0.003544 -0.001609 0.003383 0.001330 0.004777 0.002532 0.000715 -0.002278 0.004966 -0.002223 0.003331 0.004983 0.004891 -0.000718 0.003260 0.004520 -0.002167 0.004702 -0.004964 0.000238 -0.000425 0.004195 -0.004312 -0.001455 -0.001604 0.000416 0.004749 -0.001655 -0.004921 -0.001478 0.004249 0.001046 0.002904 -0.003831 -0.001280 0.000553 -0.002347 0.003514 -0.004807 0.003274 -0.002392 0.003212 0.003199 -0.001887 0.003548 0.000419 0.004769 -0.003522 -0.001244 0.002793 0.004435 0.002274 -0.000987 0.000489 -0.000772 0.001909 0.002600 -0.003837 -0.001320 0.004287 0.000299 0.004973 0.004820 0.000816 -0.004610 0.004573 0.002182 -0.004598 0.003654 -0.004880 -0.002205 0.004450 0.003374 -0.000729 0.001192 -0.003132 -0.004670 0.002182 0.004403 0.004061 0.002804 0.001509 0.001960 -0.000064 0.001577 -0.002592 0.000893 0.000898 -0.000071 0.002535 0.000735 -0.004145 -0.001357 
beautiful 0.002048 0.003517 -0.003788 0.001000 0.003601 0.003769 -0.004124 0.002780 -0.002648 -0.001477 0.001252 0.002266 -0.004044 -0.002690 0.001248 0.000238 0.004570 0.002162 -0.002731 -0.000023 0.000850 -0.002391 0.003222 -0.002735 0.004952 0.000683 -0.004488 0.000383 -0.000468 0.000916 0.003047 0.000113 -0.000252 0.000338 -0.002768 -0.000265 0.003254 0.003481 0.001974 -0.004969 0.000208 -0.002625 0.003679 0.004282 0.003265 0.001553 0.001253 -0.001730 -0.002418 -0.001954 -0.003898 0.000275 0.000815 0.001384 0.002133 -0.003921 0.003121 -0.001402 -0.004248 0.003963 -0.002845 -0.000778 -0.004135 0.004708 -0.001927 -0.004716 0.003878 0.001596 0.003533 0.001318 0.003698 0.000407 0.003690 0.004353 0.001731 -0.000576 0.001200 0.003921 -0.003117 -0.000573 0.001220 0.002054 0.000560 0.003698 0.001406 0.003283 -0.003331 -0.001983 0.001915 0.004639 0.001616 0.000667 -0.004598 -0.004348 0.004307 0.002428 -0.002977 -0.001644 -0.003852 -0.003419 
