6 100
</s> 0.004003 0.004419 -0.003830 -0.003278 0.001367 0.003021 0.000941 0.000211 -0.003604 0.002218 -0.004356 0.001250 -0.000751 -0.000957 -0.003316 -0.001882 0.002579 0.003025 0.002969 0.001597 0.001545 -0.003803 -0.004096 0.004970 0.003801 0.003090 -0.000604 0.004016 -0.000495 0.000735 -0.000149 -0.002983 0.001312 -0.001337 -0.003825 0.004754 0.004379 -0.001095 -0.000226 0.000509 -0.003638 -0.004007 0.004555 0.000063 -0.002582 -0.003042 -0.003076 0.001697 0.000201 0.001331 -0.004214 -0.003808 -0.000130 0.001144 0.002550 -0.003170 0.004080 0.000927 0.001120 -0.000608 0.002986 -0.002288 -0.002097 0.002158 -0.000753 0.001031 0.001805 -0.004089 -0.001983 0.002914 0.004232 0.003932 -0.003047 -0.002108 -0.000909 0.002001 -0.003788 0.002998 0.002788 -0.001599 -0.001552 -0.002238 0.004229 0.003912 -0.001180 0.004215 0.004820 0.001815 0.004983 -0.003111 -0.001532 -0.002107 -0.002907 0.002815 0.001579 0.000425 -0.002194 0.001524 0.003059 0.000194 
hello 0.002519 -0.005586 0.004872 0.000578 -0.002030 -0.002342 -0.000859 -0.003323 -0.004954 -0.003166 0.004831 -0.001945 -0.003020 0.002599 -0.001955 0.005436 -0.001806 -0.005190 0.003129 -0.000080 -0.003976 0.001138 0.001653 -0.000572 0.002088 -0.004518 0.001012 0.002074 -0.003349 0.000107 -0.000090 -0.002721 -0.003204 -0.005252 0.000029 0.000170 -0.000017 -0.004409 -0.005575 -0.005357 -0.004894 -0.000618 0.001548 0.001350 -0.003546 0.005601 -0.002255 -0.001464 -0.001553 0.005344 -0.004243 0.001328 -0.001514 0.003619 -0.000003 0.004799 -0.003176 -0.002889 -0.004739 -0.004178 -0.003610 -0.003521 0.002792 -0.002093 0.003026 0.004180 0.001550 0.003332 0.002833 0.002682 -0.003987 -0.003883 -0.004120 -0.000151 0.004630 -0.003087 -0.003481 -0.004779 0.003749 -0.004732 -0.000646 0.002496 -0.005251 -0.005117 0.001662 0.004020 0.004828 0.002438 0.003575 -0.003523 -0.004125 0.004502 -0.003157 0.002010 0.000678 0.002043 -0.001330 0.000231 -0.001926 -0.001298 
world -0.003953 -0.002711 0.003009 0.000612 -0.002186 -0.001205 0.002601 -0.003511 -0.002790 0.005029 0.003743 -0.003815 0.000759 -0.002399 -0.000250 0.002794 0.005223 0.002386 0.004489 0.003363 -0.000036 0.004017 0.002064 0.005369 -0.001215 0.005162 0.004253 -0.000937 -0.004511 0.004959 0.000903 -0.002460 -0.000561 -0.000904 -0.004367 -0.000853 0.000116 -0.005071 -0.003553 -0.001178 -0.001396 0.001289 0.001407 -0.000584 0.002664 0.001088 0.000178 0.003839 -0.001122 -0.001282 -0.000961 -0.003214 -0.003029 0.000354 0.004693 -0.001792 0.000503 -0.004054 0.003844 -0.001581 0.003339 -0.002711 -0.001185 0.000391 0.003540 0.000012 0.004707 -0.001244 0.001889 0.000231 -0.003379 0.004766 0.000708 -0.003282 0.002925 -0.003926 -0.004842 0.003683 -0.003127 -0.002865 0.003365 0.003041 0.001216 0.005058 0.004749 0.004622 0.002352 -0.004164 0.002931 -0.005279 -0.001474 0.001264 0.000599 -0.001212 0.003178 -0.004569 -0.001709 -0.001141 -0.001311 0.003093 
you -0.004485 0.002129 0.001909 0.002929 0.003473 0.000011 0.000712 -0.004947 -0.001627 0.002876 -0.001219 0.004032 -0.001543 -0.003588 -0.002848 0.005594 0.003131 -0.004583 0.005238 -0.004215 -0.005275 0.002641 -0.000441 -0.002422 -0.000112 -0.003089 0.002529 0.004078 0.003830 -0.004447 -0.002150 -0.000320 -0.001318 0.003245 0.002208 0.004552 -0.003101 0.001219 0.003639 -0.002456 0.002340 0.001212 -0.004354 0.004367 0.004336 -0.002297 -0.000492 -0.001794 0.002292 -0.003238 0.003002 -0.000772 -0.001400 -0.001589 -0.004445 -0.002506 -0.001484 0.004326 -0.003081 -0.005160 -0.000025 0.000196 0.003397 -0.000160 0.003837 0.003485 -0.001110 -0.000246 0.001162 0.001612 0.002887 0.003553 -0.002978 -0.002538 -0.001108 -0.003050 0.000808 -0.004425 -0.001815 -0.005540 0.002108 0.004687 -0.002853 -0.005204 0.003191 0.002094 -0.001944 -0.000342 -0.000808 -0.000529 -0.002310 0.000575 -0.003165 0.004024 0.003933 0.003519 -0.001625 0.000306 0.000560 -0.002858 
are -0.004474 -0.001698 -0.001396 0.003092 0.002503 0.001538 -0.003211 0.003132 -0.002211 0.003055 0.001892 0.004609 0.002179 0.000993 -0.002543 0.005676 -0.002420 0.002702 0.005420 0.004872 -0.001232 0.003433 0.004734 -0.002265 0.004971 -0.005546 0.000379 -0.000151 0.003857 -0.004360 -0.001492 -0.001934 0.000032 0.004187 -0.001642 -0.004889 -0.001514 0.003766 0.000429 0.002272 -0.004404 -0.001349 0.000701 -0.002164 0.003154 -0.004197 0.003023 -0.002592 0.003066 0.003814 -0.002369 0.003716 0.000233 0.005205 -0.003579 -0.000710 0.002424 0.004157 0.001706 -0.001525 0.000069 -0.001186 0.002275 0.002368 -0.003471 -0.000809 0.004483 0.000688 0.005341 0.005174 0.000378 -0.005060 0.004090 0.002154 -0.004090 0.003287 -0.005307 -0.002813 0.004898 0.002792 -0.000791 0.001530 -0.003788 -0.005337 0.002415 0.004915 0.004632 0.003102 0.001929 0.001553 -0.000567 0.002117 -0.003002 0.001167 0.001015 0.000198 0.002380 0.000769 -0.004388 -0.001540 
beautiful 0.002516 0.004056 -0.004254 0.000609 0.003771 0.004152 -0.004010 0.002791 -0.003132 -0.001168 0.000759 0.002398 -0.004154 -0.002846 0.000846 0.000033 0.004962 0.002568 -0.002342 0.000204 0.001044 -0.002836 0.002757 -0.002092 0.005438 0.001114 -0.004550 0.000870 -0.000572 0.001057 0.003056 -0.000275 -0.000098 0.000168 -0.003294 0.000310 0.003813 0.003321 0.001926 -0.004947 -0.000250 -0.003121 0.004273 0.004311 0.002992 0.001199 0.000884 -0.001497 -0.002418 -0.001815 -0.004448 -0.000220 0.000777 0.001536 0.002502 -0.004351 0.003645 -0.001333 -0.004102 0.003897 -0.002465 -0.001089 -0.004429 0.005005 -0.001999 -0.004618 0.004166 0.001092 0.003328 0.001686 0.004209 0.000936 0.003344 0.004090 0.001656 -0.000369 0.000698 0.004347 -0.002822 -0.000799 0.001068 0.001819 0.001094 0.004247 0.001313 0.003863 -0.002738 -0.001810 0.002565 0.004236 0.001424 0.000423 -0.004978 -0.004039 0.004556 0.002453 -0.003280 -0.001478 -0.003511 -0.003388 
