6 100
</s> 0.004003 0.004419 -0.003830 -0.003278 0.001367 0.003021 0.000941 0.000211 -0.003604 0.002218 -0.004356 0.001250 -0.000751 -0.000957 -0.003316 -0.001882 0.002579 0.003025 0.002969 0.001597 0.001545 -0.003803 -0.004096 0.004970 0.003801 0.003090 -0.000604 0.004016 -0.000495 0.000735 -0.000149 -0.002983 0.001312 -0.001337 -0.003825 0.004754 0.004379 -0.001095 -0.000226 0.000509 -0.003638 -0.004007 0.004555 0.000063 -0.002582 -0.003042 -0.003076 0.001697 0.000201 0.001331 -0.004214 -0.003808 -0.000130 0.001144 0.002550 -0.003170 0.004080 0.000927 0.001120 -0.000608 0.002986 -0.002288 -0.002097 0.002158 -0.000753 0.001031 0.001805 -0.004089 -0.001983 0.002914 0.004232 0.003932 -0.003047 -0.002108 -0.000909 0.002001 -0.003788 0.002998 0.002788 -0.001599 -0.001552 -0.002238 0.004229 0.003912 -0.001180 0.004215 0.004820 0.001815 0.004983 -0.003111 -0.001532 -0.002107 -0.002907 0.002815 0.001579 0.000425 -0.002194 0.001524 0.003059 0.000194 
hello 0.003109 -0.005457 0.004756 0.000247 -0.002044 -0.002180 -0.000797 -0.003472 -0.005557 -0.003157 0.004659 -0.001983 -0.003263 0.002663 -0.002356 0.005475 -0.001654 -0.005162 0.003526 0.000070 -0.003999 0.000785 0.001311 -0.000081 0.002547 -0.004404 0.000989 0.002559 -0.003630 0.000242 -0.000087 -0.003150 -0.003241 -0.005718 -0.000351 0.000652 0.000445 -0.004790 -0.005927 -0.005598 -0.005508 -0.001047 0.002106 0.001416 -0.004043 0.005647 -0.002698 -0.001348 -0.001651 0.005764 -0.004896 0.001005 -0.001602 0.003907 0.000301 0.004768 -0.002952 -0.003009 -0.004878 -0.004424 -0.003512 -0.003933 0.002701 -0.002008 0.003115 0.004493 0.001792 0.003107 0.002750 0.003074 -0.003807 -0.003697 -0.004653 -0.000366 0.004826 -0.003059 -0.004017 -0.004697 0.004210 -0.005131 -0.000843 0.002372 -0.005078 -0.004943 0.001600 0.004612 0.005552 0.002733 0.004256 -0.004030 -0.004484 0.004522 -0.003578 0.002365 0.000839 0.002173 -0.001624 0.000387 -0.001704 -0.001322 
world -0.003369 -0.003924 0.004084 0.000656 -0.002679 -0.001701 0.002515 -0.004333 -0.004022 0.004480 0.004778 -0.004320 0.000105 -0.001870 -0.000776 0.004000 0.004960 0.001341 0.005356 0.003453 -0.000883 0.004262 0.002346 0.005498 -0.000714 0.004342 0.004573 -0.000398 -0.005369 0.005107 0.000883 -0.003190 -0.001252 -0.002141 -0.004529 -0.000710 0.000211 -0.006214 -0.004894 -0.002354 -0.002608 0.001092 0.001878 -0.000323 0.001830 0.002283 -0.000411 0.003648 -0.001479 -0.000069 -0.002012 -0.003084 -0.003435 0.001185 0.004849 -0.000807 -0.000114 -0.004760 0.002919 -0.002577 0.002692 -0.003604 -0.000620 -0.000047 0.004280 0.000998 0.005165 -0.000638 0.002479 0.000891 -0.004258 0.004093 -0.000300 -0.003462 0.003991 -0.004640 -0.005814 0.002750 -0.002266 -0.004013 0.003239 0.003582 0.000180 0.004106 0.005169 0.005689 0.003617 -0.003649 0.003902 -0.006281 -0.002470 0.002234 -0.000131 -0.000696 0.003399 -0.004213 -0.002079 -0.001065 -0.001661 0.002897 
you -0.004731 0.002778 0.001338 0.002830 0.003678 0.000276 0.000826 -0.004550 -0.001028 0.003214 -0.001786 0.004213 -0.001194 -0.003878 -0.002591 0.004899 0.003338 -0.003967 0.004817 -0.004209 -0.004777 0.002476 -0.000656 -0.002331 -0.000381 -0.002516 0.002396 0.003815 0.004180 -0.004412 -0.002120 0.000009 -0.000937 0.003818 0.002202 0.004534 -0.003075 0.001707 0.004268 -0.001830 0.002922 0.001285 -0.004516 0.004198 0.004709 -0.002916 -0.000243 -0.001600 0.002444 -0.003865 0.003493 -0.000942 -0.001217 -0.002031 -0.004402 -0.003049 -0.001119 0.004618 -0.002521 -0.004637 0.000396 0.000612 0.003041 0.000073 0.003482 0.002983 -0.001309 -0.000637 0.000797 0.001263 0.003335 0.004014 -0.002503 -0.002518 -0.001620 -0.002691 0.001238 -0.003829 -0.002269 -0.004974 0.002176 0.004363 -0.002205 -0.004551 0.002968 0.001587 -0.002522 -0.000641 -0.001231 -0.000123 -0.001813 0.000036 -0.002764 0.003761 0.003827 0.003261 -0.001474 0.000273 0.000805 -0.002683 
are -0.004706 -0.001057 -0.001972 0.002984 0.002697 0.001803 -0.003100 0.003544 -0.001609 0.003383 0.001330 0.004777 0.002532 0.000715 -0.002278 0.004966 -0.002223 0.003331 0.004983 0.004891 -0.000718 0.003260 0.004520 -0.002167 0.004702 -0.004964 0.000238 -0.000425 0.004195 -0.004312 -0.001455 -0.001604 0.000416 0.004749 -0.001655 -0.004921 -0.001478 0.004249 0.001046 0.002904 -0.003831 -0.001280 0.000553 -0.002347 0.003514 -0.004807 0.003274 -0.002392 0.003212 0.003199 -0.001887 0.003548 0.000419 0.004769 -0.003522 -0.001244 0.002793 0.004435 0.002274 -0.000987 0.000489 -0.000772 0.001909 0.002600 -0.003837 -0.001320 0.004287 0.000299 0.004973 0.004820 0.000816 -0.004610 0.004573 0.002182 -0.004598 0.003654 -0.004880 -0.002205 0.004450 0.003374 -0.000729 0.001192 -0.003132 -0.004670 0.002182 0.004403 0.004061 0.002804 0.001509 0.001960 -0.000064 0.001577 -0.002592 0.000893 0.000898 -0.000071 0.002535 0.000735 -0.004145 -0.001357 
beautiful 0.002048 0.003517 -0.003788 0.001000 0.003601 0.003769 -0.004124 0.002780 -0.002648 -0.001477 0.001252 0.002266 -0.004044 -0.002690 0.001248 0.000238 0.004570 0.002162 -0.002731 -0.000023 0.000850 -0.002391 0.003222 -0.002735 0.004952 0.000683 -0.004488 0.000383 -0.000468 0.000916 0.003047 0.000113 -0.000252 0.000338 -0.002768 -0.000265 0.003254 0.003481 0.001974 -0.004969 0.000208 -0.002625 0.003679 0.004282 0.003265 0.001553 0.001253 -0.001730 -0.002418 -0.001954 -0.003898 0.000275 0.000815 0.001384 0.002133 -0.003921 0.003121 -0.001402 -0.004248 0.003963 -0.002845 -0.000778 -0.004135 0.004708 -0.001927 -0.004716 0.003878 0.001596 0.003533 0.001318 0.003698 0.000407 0.003690 0.004353 0.001731 -0.000576 0.001200 0.003921 -0.003117 -0.000573 0.001220 0.002054 0.000560 0.003698 0.001406 0.003283 -0.003331 -0.001983 0.001915 0.004639 0.001616 0.000667 -0.004598 -0.004348 0.004307 0.002428 -0.002977 -0.001644 -0.003852 -0.003419 
