17 100
</s> 0.004003 0.004419 -0.003830 -0.003278 0.001367 0.003021 0.000941 0.000211 -0.003604 0.002218 -0.004356 0.001250 -0.000751 -0.000957 -0.003316 -0.001882 0.002579 0.003025 0.002969 0.001597 0.001545 -0.003803 -0.004096 0.004970 0.003801 0.003090 -0.000604 0.004016 -0.000495 0.000735 -0.000149 -0.002983 0.001312 -0.001337 -0.003825 0.004754 0.004379 -0.001095 -0.000226 0.000509 -0.003638 -0.004007 0.004555 0.000063 -0.002582 -0.003042 -0.003076 0.001697 0.000201 0.001331 -0.004214 -0.003808 -0.000130 0.001144 0.002550 -0.003170 0.004080 0.000927 0.001120 -0.000608 0.002986 -0.002288 -0.002097 0.002158 -0.000753 0.001031 0.001805 -0.004089 -0.001983 0.002914 0.004232 0.003932 -0.003047 -0.002108 -0.000909 0.002001 -0.003788 0.002998 0.002788 -0.001599 -0.001552 -0.002238 0.004229 0.003912 -0.001180 0.004215 0.004820 0.001815 0.004983 -0.003111 -0.001532 -0.002107 -0.002907 0.002815 0.001579 0.000425 -0.002194 0.001524 0.003059 0.000194 
: 0.002271 -0.005330 0.004615 0.000481 -0.001790 -0.002068 -0.001025 -0.003144 -0.004754 -0.002581 0.004731 -0.001714 -0.002752 0.002395 -0.001866 0.005087 -0.001522 -0.004728 0.003191 0.000202 -0.003728 0.001114 0.001957 -0.000760 0.002379 -0.004443 0.000798 0.001912 -0.003120 0.000219 0.000055 -0.002439 -0.002997 -0.004826 -0.000140 0.000017 0.000136 -0.004074 -0.005196 -0.005130 -0.004698 -0.000478 0.001470 0.001037 -0.002959 0.005320 -0.001971 -0.001519 -0.001516 0.004872 -0.004182 0.001244 -0.001428 0.003461 0.000003 0.004460 -0.002497 -0.002744 -0.004457 -0.003770 -0.003319 -0.003590 0.002704 -0.001803 0.002861 0.003765 0.001698 0.003023 0.002924 0.002849 -0.003654 -0.003833 -0.003554 -0.000054 0.004286 -0.002778 -0.003466 -0.004182 0.003474 -0.004477 -0.000612 0.002453 -0.004863 -0.004624 0.001842 0.004141 0.004673 0.002254 0.003533 -0.003095 -0.003966 0.004297 -0.003027 0.001811 0.000910 0.001840 -0.001162 0.000221 -0.002150 -0.001188 
. -0.004416 -0.003446 0.003730 0.000919 -0.002244 -0.001577 0.002178 -0.003722 -0.002538 0.005038 0.004456 -0.003810 0.000823 -0.002154 -0.000008 0.003164 0.004944 0.001927 0.004410 0.003367 -0.000465 0.004462 0.002874 0.004396 -0.001251 0.004350 0.004175 -0.001318 -0.004395 0.004940 0.001011 -0.001920 -0.000850 -0.000759 -0.003905 -0.001488 -0.000318 -0.004938 -0.003537 -0.001497 -0.001127 0.001902 0.000779 -0.000775 0.003200 0.001648 0.000563 0.003381 -0.001223 -0.001383 -0.000606 -0.002644 -0.002989 0.000295 0.004303 -0.001297 0.000278 -0.004207 0.003471 -0.001559 0.002922 -0.002706 -0.000706 0.000105 0.003777 -0.000053 0.004642 -0.000780 0.002361 0.000239 -0.003824 0.003923 0.001206 -0.003039 0.003053 -0.004131 -0.004597 0.003383 -0.003392 -0.002871 0.003536 0.003485 0.000646 0.004428 0.005146 0.004417 0.001955 -0.004232 0.002615 -0.004727 -0.001554 0.001724 0.000861 -0.001438 0.003212 -0.004497 -0.001403 -0.001275 -0.001989 0.003093 
@card@ -0.004779 0.002712 0.001603 0.002838 0.003842 0.000220 0.000695 -0.004780 -0.001058 0.003488 -0.001796 0.004368 -0.001189 -0.003848 -0.002774 0.005123 0.003438 -0.004093 0.005014 -0.004145 -0.005025 0.002578 -0.000506 -0.002534 -0.000229 -0.002736 0.002457 0.003942 0.004338 -0.004468 -0.002156 0.000122 -0.001030 0.003918 0.002274 0.004539 -0.003108 0.001724 0.004297 -0.001982 0.002869 0.001364 -0.004761 0.004188 0.004875 -0.002889 -0.000279 -0.001652 0.002446 -0.003862 0.003599 -0.000920 -0.001296 -0.002084 -0.004462 -0.003115 -0.001010 0.004690 -0.002637 -0.004771 0.000336 0.000534 0.003182 -0.000081 0.003648 0.003170 -0.001189 -0.000744 0.000859 0.001432 0.003408 0.003845 -0.002557 -0.002670 -0.001684 -0.002713 0.001126 -0.003941 -0.002232 -0.005187 0.002272 0.004515 -0.002151 -0.004756 0.003155 0.001788 -0.002486 -0.000468 -0.001110 -0.000041 -0.001991 0.000155 -0.002792 0.004004 0.004003 0.003354 -0.001596 0.000407 0.000698 -0.002578 
die -0.004702 -0.001274 -0.001813 0.002960 0.002699 0.001831 -0.003264 0.003404 -0.001879 0.003520 0.001626 0.004790 0.002447 0.000733 -0.002352 0.005119 -0.002139 0.003239 0.005261 0.005025 -0.000843 0.003297 0.004819 -0.002344 0.005048 -0.005235 0.000141 -0.000350 0.004073 -0.004222 -0.001339 -0.001607 0.000307 0.004640 -0.001767 -0.004947 -0.001369 0.004153 0.000929 0.002624 -0.004020 -0.001210 0.000632 -0.002418 0.003656 -0.004550 0.003282 -0.002561 0.003115 0.003229 -0.002180 0.003581 0.000383 0.004915 -0.003538 -0.001096 0.002999 0.004324 0.002067 -0.001037 0.000427 -0.001093 0.002065 0.002671 -0.003705 -0.001299 0.004452 0.000348 0.005239 0.005125 0.000762 -0.004794 0.004634 0.002246 -0.004470 0.003607 -0.005097 -0.002134 0.004482 0.003150 -0.000762 0.001369 -0.003290 -0.004691 0.002442 0.004766 0.004286 0.002798 0.001744 0.001989 -0.000265 0.001773 -0.002767 0.000879 0.001114 -0.000031 0.002549 0.000702 -0.004435 -0.001428 
sein 0.001980 0.003426 -0.003655 0.000944 0.003648 0.003752 -0.004233 0.002646 -0.002746 -0.001250 0.001329 0.002355 -0.004020 -0.002653 0.001162 0.000297 0.004614 0.002121 -0.002512 0.000082 0.000712 -0.002396 0.003351 -0.002910 0.005144 0.000471 -0.004539 0.000437 -0.000428 0.000974 0.003087 0.000211 -0.000306 0.000341 -0.002761 -0.000255 0.003288 0.003459 0.002005 -0.005061 0.000160 -0.002515 0.003621 0.004155 0.003446 0.001586 0.001269 -0.001881 -0.002419 -0.001977 -0.003934 0.000294 0.000845 0.001384 0.002064 -0.003880 0.003272 -0.001404 -0.004318 0.003902 -0.002786 -0.000915 -0.004007 0.004716 -0.001804 -0.004682 0.003931 0.001553 0.003641 0.001517 0.003749 0.000290 0.003784 0.004305 0.001735 -0.000589 0.001086 0.004010 -0.003134 -0.000682 0.001219 0.002162 0.000536 0.003652 0.001554 0.003419 -0.003235 -0.001964 0.002050 0.004692 0.001466 0.000731 -0.004631 -0.004290 0.004437 0.002473 -0.002902 -0.001637 -0.003982 -0.003404 
, 0.004390 -0.002925 0.001332 -0.001102 -0.002075 -0.000597 -0.004767 -0.002535 -0.000372 0.004714 -0.001730 0.003860 -0.004511 0.004310 0.000421 0.000515 0.002669 0.003164 -0.002821 0.003257 0.001092 -0.001100 0.003361 0.000254 0.004550 -0.000166 -0.001600 0.003385 -0.003264 -0.000477 0.004031 0.004783 -0.004170 0.001374 0.004050 0.000492 0.002543 0.002661 0.004663 -0.001096 -0.001267 0.003149 -0.005171 0.001013 0.000572 0.004560 -0.003655 -0.000241 0.004463 0.001564 0.002570 0.001355 0.001318 0.001136 0.000082 0.003519 0.003948 0.002931 -0.002083 -0.002955 -0.003279 -0.001322 -0.002246 -0.004216 -0.001721 0.003784 0.002783 -0.004781 -0.001945 0.004372 -0.000376 0.003274 -0.001246 -0.000330 -0.002545 0.001629 -0.004358 0.002694 -0.002200 0.002455 -0.003081 -0.002085 0.003969 0.002319 0.002277 0.001848 0.003176 -0.000263 0.004104 0.003742 0.003128 0.004529 -0.002490 -0.003459 -0.003126 0.000374 0.000831 0.004032 -0.003403 0.003239 
in 0.003861 0.003492 0.000226 0.001236 -0.000825 0.004673 -0.004416 -0.004756 0.002017 -0.000533 0.004670 -0.001283 0.000053 0.002153 0.001049 -0.002983 0.003381 0.000043 0.001393 -0.001213 0.004606 0.002622 0.004420 0.004482 -0.000799 0.001784 0.001447 -0.002179 0.004312 0.002375 -0.003279 0.004220 0.000464 0.001156 -0.003603 0.002024 0.000249 -0.002357 -0.000522 0.002082 -0.001233 0.004039 -0.002815 -0.002395 0.003821 0.004686 0.003738 0.004553 -0.004725 -0.003297 -0.004674 0.001056 -0.003970 -0.000286 0.000879 -0.002084 0.001236 -0.004374 0.001854 -0.001629 -0.001682 -0.001125 0.002239 -0.001711 -0.002267 -0.003154 -0.001798 -0.004168 0.001948 -0.001147 -0.001179 0.001969 -0.003804 -0.003274 -0.004598 -0.000089 -0.001981 -0.004666 0.002028 -0.004730 -0.002212 0.001536 0.004959 -0.003511 -0.001922 0.004916 0.003148 0.004397 0.003912 -0.002542 -0.002147 0.002175 0.002981 0.003696 0.003301 -0.004478 -0.004402 0.000725 -0.004471 0.002958 
ich 0.004126 -0.002096 0.003946 -0.005049 0.004273 -0.002370 -0.000916 -0.004949 0.002888 0.004387 -0.003901 -0.000810 0.000999 0.004432 0.000016 -0.004802 0.000741 -0.001820 0.001196 0.004125 -0.002950 -0.002651 -0.000234 -0.001285 -0.001426 -0.003717 -0.000120 -0.004015 0.004094 0.002820 -0.001263 0.003213 -0.002860 -0.004600 0.004307 0.001131 0.002912 -0.003348 -0.001257 0.003365 -0.001459 0.001122 -0.004567 -0.004132 0.005030 -0.004398 0.001074 -0.003382 0.003743 -0.000451 0.004206 -0.003240 0.001136 -0.004574 -0.003214 -0.001018 0.004411 -0.002577 0.002203 -0.000595 0.003193 0.002552 -0.002539 -0.003632 0.000899 0.000854 0.000791 0.000386 0.002234 0.004013 0.003842 -0.005082 0.005002 -0.004030 0.000596 -0.003894 -0.000963 0.004749 -0.002513 0.001390 -0.002207 -0.000676 0.003411 0.002506 -0.004029 0.001856 -0.000189 0.002100 0.000903 -0.003277 0.000069 -0.003843 0.002810 0.001069 0.001828 0.002739 0.004877 0.004430 0.002272 0.002911 
- 0.001900 -0.001190 0.004912 -0.000175 0.001917 -0.000862 0.001106 -0.001065 0.003988 0.002349 -0.000199 -0.000183 0.002201 -0.003130 -0.002139 0.001887 0.001069 -0.004231 -0.001375 -0.001478 -0.002535 0.003933 0.004329 -0.004578 0.003662 -0.003073 0.001546 0.002412 -0.000160 -0.003815 0.000105 -0.001465 0.002292 0.002496 0.000852 -0.002438 -0.000818 0.000406 -0.002210 -0.004754 -0.000263 -0.002548 -0.002865 0.000607 -0.002326 0.002784 -0.001601 0.003430 -0.003307 -0.001595 0.002288 -0.002271 -0.004481 -0.000845 0.003071 -0.001345 0.004512 0.001862 -0.003134 0.004698 -0.004935 -0.004206 0.003451 -0.003048 0.003856 0.004112 0.003100 -0.001577 -0.002455 0.000229 -0.000063 -0.005286 -0.003794 0.000760 0.000738 0.004831 0.002814 -0.003466 0.004415 -0.001525 0.003274 -0.000733 0.002126 -0.000088 0.004421 0.003072 -0.001826 0.004862 -0.003855 0.004578 -0.002028 0.000923 0.001079 0.004343 0.002338 -0.001019 -0.004719 0.003691 0.000062 0.002632 
%possmiley -0.004031 -0.002679 -0.002439 -0.002408 0.003138 0.002541 -0.000340 0.002141 -0.000552 -0.001311 -0.004049 -0.002802 0.000219 -0.002333 -0.002480 -0.004190 0.003088 0.004157 -0.001512 0.003832 -0.001987 -0.004814 -0.004847 -0.000509 -0.002023 0.000154 -0.003684 0.003780 -0.002230 0.001294 0.003617 -0.000225 -0.004740 0.003025 0.000804 0.003279 0.000669 0.002330 0.004353 0.002602 -0.003531 -0.001173 0.003086 -0.001370 -0.002004 0.004507 -0.001449 0.004485 0.002719 0.003862 0.004534 -0.003942 0.000899 0.004029 -0.002496 0.001552 -0.004724 0.004450 -0.003703 0.001761 0.000771 -0.002857 0.002460 0.000025 -0.004720 -0.003205 -0.000242 0.002072 -0.001125 0.000300 0.004600 -0.003784 0.004114 -0.002898 -0.004062 0.003226 -0.003779 -0.000555 -0.004804 -0.003664 0.002988 0.001742 -0.003716 0.001414 0.004451 0.001073 -0.004410 -0.003297 0.003215 -0.003160 0.001940 0.002993 0.004400 0.001206 -0.003056 0.003483 -0.004138 -0.001299 0.004193 0.004038 
" -0.002371 -0.003850 0.000593 0.002979 0.002395 0.003549 0.004298 0.000808 -0.004909 0.002579 -0.002406 0.001383 0.003831 -0.002330 0.003568 0.000100 -0.001448 -0.004009 -0.000630 0.005017 0.001590 -0.002595 0.003408 -0.002855 -0.001162 0.003185 -0.003009 0.000081 -0.002967 -0.001348 0.004431 -0.000934 -0.003060 0.000438 0.001922 0.002753 0.001235 -0.001961 -0.001626 0.001636 0.004708 0.003708 -0.004682 -0.000516 -0.004542 0.001872 -0.003431 0.001528 0.003228 -0.000644 -0.001563 -0.003649 0.000817 -0.004001 0.000091 0.004682 0.003658 0.003580 0.002573 -0.000398 -0.001174 -0.003306 0.000303 -0.002755 -0.002853 0.002829 -0.000825 -0.004280 0.000874 0.000928 -0.001885 -0.004333 -0.005063 0.003013 -0.001056 0.000662 -0.002573 0.003912 -0.004754 -0.003831 -0.001400 0.000788 0.003399 0.000773 0.000859 0.002911 0.002726 -0.004782 -0.000797 0.001967 0.003924 0.002629 0.001291 0.003196 0.001751 -0.001367 -0.002292 0.003213 0.001665 0.001781 
und 0.000869 0.001392 0.003684 0.002823 -0.004168 0.000463 -0.002136 -0.005136 0.000210 0.004536 -0.000429 0.004262 0.004556 0.000217 0.003920 -0.001357 0.001198 -0.002557 0.000915 -0.001007 -0.004945 -0.001457 0.001253 -0.001795 0.004768 -0.002756 -0.001399 0.003145 -0.001027 0.001692 0.000238 0.001065 0.001483 0.000524 0.004422 0.003049 -0.002694 -0.004040 0.002784 0.002351 0.003630 0.002858 -0.000795 -0.004939 0.001272 -0.002065 0.000156 -0.000783 0.002166 0.000572 0.004391 -0.004375 0.001956 0.003208 0.003574 -0.002437 -0.001620 0.000036 0.001167 0.000539 0.000885 -0.001919 0.004339 0.003255 0.003090 -0.002324 0.001136 -0.003641 -0.000509 -0.000023 0.003201 0.002967 -0.002210 -0.000664 0.004784 -0.000635 -0.001794 0.003515 0.002060 0.003052 0.003876 0.001770 0.003848 -0.004556 -0.000387 -0.003858 0.001952 -0.000278 0.002742 0.000756 -0.000586 0.001505 0.003465 0.003219 0.003910 -0.001209 0.004981 0.002822 0.002972 0.002954 
du 0.002037 0.001433 -0.000602 -0.003122 0.002483 0.004050 -0.004261 -0.003589 -0.003837 -0.002469 -0.000474 0.000259 -0.003821 0.000880 -0.001210 -0.001326 -0.002522 -0.003330 -0.004223 0.004979 -0.002652 -0.000478 0.003689 -0.005064 -0.003084 -0.004137 -0.001036 -0.002535 -0.002425 -0.003932 0.001036 0.002520 -0.004679 0.001501 0.000871 0.003735 -0.002248 -0.003116 0.002546 -0.003246 0.004666 -0.000624 0.002397 0.000284 -0.000746 -0.001623 -0.000522 0.004598 -0.003994 -0.004244 -0.004995 0.003333 0.003038 -0.003588 0.003013 0.002073 0.000633 -0.002890 -0.000282 -0.000971 0.000779 -0.002693 0.004547 -0.004805 -0.000536 -0.000350 -0.001739 0.003684 0.003724 -0.001933 0.004927 0.000311 0.003844 -0.000594 0.001192 0.003579 0.002571 0.003767 -0.004218 0.003826 -0.004671 0.003010 0.000107 0.004831 -0.000497 0.001606 -0.001706 0.002144 0.004998 -0.003647 -0.003781 0.004005 0.004614 -0.002876 0.003651 0.001091 0.003879 -0.004177 0.000886 -0.003144 
? 0.000147 -0.003097 0.002939 -0.002939 0.003608 -0.002372 -0.004583 -0.000062 -0.003180 -0.002586 -0.002338 -0.003581 -0.004867 -0.001823 0.000804 -0.000360 -0.003823 0.004518 -0.000963 -0.004681 -0.000112 0.003559 -0.001494 0.001810 -0.000740 0.004676 -0.001821 0.000056 -0.000899 0.000088 -0.000421 0.003089 -0.002752 0.004148 -0.003507 -0.003189 0.003962 0.004001 -0.004629 -0.000573 0.001637 -0.000868 -0.004897 0.001949 -0.004281 0.001598 -0.002849 -0.002676 0.003616 -0.004154 -0.004620 0.001622 -0.004409 -0.001019 -0.003823 0.002951 0.004349 0.000537 -0.001560 0.002057 0.004891 0.002494 0.003704 0.002407 -0.004892 -0.000445 -0.004246 -0.000323 0.004953 -0.001453 0.000917 0.002099 -0.002897 -0.001031 -0.001728 0.000546 -0.003228 0.003032 -0.000875 -0.001789 0.001699 -0.004741 -0.002589 0.001010 0.001953 0.002587 -0.000399 -0.002858 0.000121 0.004478 0.004411 -0.002618 0.001316 0.003119 0.003499 0.004958 0.003439 0.002984 0.000498 -0.004311 
wie -0.003497 0.001073 0.002129 -0.002128 0.003246 -0.003016 -0.003041 0.002339 -0.001428 0.002785 -0.003288 0.002389 0.000418 0.002757 -0.004944 0.003604 -0.001155 0.004202 -0.001378 0.004502 -0.003574 -0.003505 -0.003947 -0.004398 -0.001476 0.001748 -0.001177 0.000540 0.002577 0.004581 0.001048 0.004895 -0.001262 0.001837 -0.001102 -0.003208 -0.000093 0.003142 0.001442 -0.002747 0.000966 0.000496 -0.000137 -0.000533 -0.000146 -0.001604 -0.001606 -0.000777 -0.003635 0.003931 0.003160 0.004937 0.003451 -0.003339 0.003146 -0.002865 -0.003747 -0.001362 -0.000134 -0.000740 0.002191 0.004247 -0.002857 -0.002934 0.001618 0.000651 0.001341 -0.001234 -0.002791 -0.002587 0.001453 -0.004757 0.004042 -0.003694 -0.001304 -0.000189 -0.000315 0.002211 -0.002745 -0.001949 0.004520 0.001902 0.003437 -0.001513 0.001104 -0.004940 -0.003970 0.001747 0.004524 0.003637 -0.003493 0.001125 0.002423 0.002128 -0.001098 0.002471 -0.004906 -0.002349 -0.000682 0.003967 
' -0.004917 -0.000425 -0.002880 -0.003556 -0.002385 0.000347 0.003091 0.003179 0.000199 0.004216 0.001962 0.000114 0.003309 -0.002047 -0.000785 -0.004721 -0.000647 0.001448 0.004630 -0.000438 0.003369 -0.003347 -0.001020 -0.004006 0.003597 -0.002115 -0.003869 0.001018 -0.000839 0.002775 0.003141 0.002260 0.003621 0.000200 -0.001746 0.000692 0.001948 0.002484 0.003298 -0.000335 0.001403 0.004152 0.001995 -0.004977 0.002842 0.002220 0.000767 -0.005084 -0.001828 -0.003965 -0.001575 0.000340 0.003003 -0.002051 -0.003333 0.004305 0.005019 0.002158 -0.000929 0.002545 0.003903 -0.004220 0.002467 0.003658 0.002899 -0.001173 -0.004717 -0.001885 -0.003113 0.002936 -0.001011 -0.000666 0.003426 0.002272 -0.002226 0.003340 0.002625 0.004415 -0.002077 -0.002101 -0.002336 -0.001261 -0.001838 0.004235 0.003381 -0.002664 0.000367 -0.004528 -0.002837 0.004445 -0.002318 -0.002563 -0.000803 -0.002682 -0.002632 -0.001859 0.002685 -0.004430 -0.002506 -0.001313 
